34 64
34 0.11333391 -0.041054796 0.16752973 0.12063041 -0.07225824 -0.28519657 0.06886783 0.22607331 -0.06612206 -0.06390007 0.13921273 9.076193e-05 0.14029238 0.009427762 -0.16755612 -0.004306149 -0.10015922 0.15845124 -0.17237209 -0.12761411 0.11577498 0.13857992 0.31327128 -0.0008842541 0.08895762 0.20466088 0.04003082 0.19061536 -0.10519798 -0.06414624 -0.046672102 -0.060618024 -0.07080404 -0.1658448 -0.25501877 -0.024460124 0.17061704 -0.16116153 0.12824245 -0.029384425 -0.1026983 0.12120931 -0.25630447 -0.17885005 0.041300945 0.011491094 -0.108898595 -0.06419355 0.15362348 0.062069986 -0.050309412 0.12958953 -0.25426257 0.26990932 0.14195853 -0.074332505 0.105448514 -0.21192102 -0.1095179 0.16226764 0.04887817 -0.029274175 -0.1344577 0.050115537
1 -0.07593141 0.0945961 0.15877336 0.15119062 -0.053686995 -0.072142094 0.07511184 0.0822278 0.015926829 -0.22623989 0.3114148 0.10088202 0.14155975 -0.009407325 -0.09850846 -0.18795003 -0.124702856 0.02964534 0.011222406 0.101767935 0.064438194 -0.006759129 0.27151188 -0.22953832 -0.08673441 0.13287038 -0.20701334 -0.024013525 -0.03485186 -0.06912709 -0.0108571565 0.096225925 -0.2955728 -0.21151374 0.19602394 0.14021876 -0.13482551 0.19704486 0.32216078 0.19057748 0.22122847 0.08243601 -0.07715431 -0.07169231 -0.14519703 -0.120585606 -0.0027909698 -0.1533354 -0.19216888 0.025272287 0.1752187 0.060464274 0.21383138 0.07977211 0.12831733 0.15881367 0.14370836 -0.16639577 0.013967723 -0.09500556 0.16552544 -0.103704475 -0.06775903 0.07355624
33 0.072716385 -0.086694546 0.27492014 0.015617889 -0.012307579 -0.27335224 0.014319213 0.32417053 0.021919861 0.09186501 0.16888519 -0.05056511 0.07485578 -0.031673443 -0.33194277 -0.0246291 -0.08029206 0.25340113 -0.08867068 -0.13651617 0.1929712 0.14962362 0.30113837 -0.030751426 0.048317708 0.20691463 0.115808204 0.19907631 0.03447651 -0.0016204813 -0.021591306 0.016950756 -0.15569735 -0.064476155 -0.19519086 -0.034714457 0.1500171 -0.17793849 0.10394089 -0.11886548 -0.060169615 0.14166738 -0.2912941 -0.06546395 0.14110278 0.05088367 -0.143942 -0.1284132 0.08680292 0.08605648 -0.13139628 -0.09080058 -0.2168411 0.25793937 0.13947731 -0.14906533 -0.050453585 -0.24335305 -0.15895894 0.059063263 0.15567346 0.018750848 -0.003497898 0.08330466
3 0.10571459 -0.15602943 0.067636766 0.15433997 0.047878776 -0.062155955 -0.017557468 0.1590657 -0.059866335 0.0153778335 0.08816458 -0.0040893597 0.09897116 0.079797685 -0.07141722 0.17853269 -0.16547535 0.042527564 -0.1656557 0.085784025 0.22603865 0.1016194 0.30212122 -0.1349718 0.09525483 0.2975342 -0.08199714 -0.07929719 -0.10901892 -0.16434318 -0.039500415 -0.2093174 -0.022534411 -0.27621847 0.02932053 0.18556117 0.08482934 0.06688324 0.24058957 -0.092708655 -0.11650646 0.04540895 -0.12526122 -0.18729128 0.060521044 0.05942064 0.028153844 -0.0999568 -0.08206334 0.038407512 0.14755686 0.16151728 0.002947685 0.23141523 0.1098644 -0.0885556 0.068744086 -0.09589963 0.053977184 -0.066248104 -0.03719523 -0.21592858 -0.14135794 -0.023011217
2 -0.10692103 0.1022252 0.084547155 -0.0003760321 -0.17060444 -0.12898463 0.12901464 0.24272493 -0.00086469244 0.15573238 0.23280223 0.2157298 0.12997629 -0.00090383115 -0.13004194 -0.022661954 -0.047831103 0.11243513 -0.10484426 0.08406694 0.13070017 0.0642232 0.24783601 -0.07145802 0.00584838 0.08355157 -0.16713724 -0.011827382 0.14442886 -0.19452302 -0.16042762 -0.025450578 -0.14564395 -0.15632229 0.07895372 0.24050279 0.07050239 0.039012514 0.37270686 0.08097154 0.23783183 0.022902118 0.07323855 -0.08664535 -0.14226474 0.1969197 -0.03550143 -0.16055542 -0.115278386 -0.010394361 0.23210162 0.21320455 0.18441637 0.032830488 0.2049649 0.16367072 0.17548448 -0.14974481 0.22088191 -0.27341574 0.2254717 -0.09764624 -0.12756568 0.22050574
4 -0.04980347 -0.05560522 0.21928404 0.23406447 -0.14834289 0.0029014386 0.19232705 0.18022172 -0.06399985 -0.020311397 0.14366703 0.043244988 -0.091162205 -0.02422428 -0.06551297 0.09753819 0.117679946 -0.14777686 -0.16657034 0.20289424 0.17130226 0.15588205 0.3101511 -0.23920609 0.109584704 0.17806828 -0.18686411 -0.024670726 -0.03314357 -0.23594682 0.036781155 -0.014547134 -0.28007016 -0.31307548 0.096346684 0.19913645 0.08911077 0.2699356 0.36782533 0.033444554 0.12030883 -0.024005134 0.14815384 -0.09071552 -0.023707777 0.03530063 0.11259001 0.033915453 -0.27526635 -0.04000544 0.19036336 0.14460151 0.09766657 0.20815285 0.09321322 -0.041885234 0.052285783 -0.05751774 0.050871994 -0.102551326 0.080297194 -0.08544261 -0.05029454 0.13247994
32 0.22570814 -0.03479571 0.19056016 0.23094793 -0.036533214 -0.2569968 -0.046900243 0.019804666 -0.1253646 -0.050749052 0.16577001 -0.10143302 0.1416735 -0.102516316 -0.055877097 0.18761382 -0.12431333 0.08159373 -0.1620524 0.09853973 0.25772196 0.24182048 0.21584964 0.16376609 -0.047626868 0.17649724 -0.051371347 0.046932444 -0.3615863 0.05665773 -0.0029673746 -0.13546188 -0.14342782 -0.0013068372 -0.073856525 -0.13968998 0.13634138 -0.3037499 0.29725286 0.15896302 -0.2914928 0.2261002 0.08233111 -0.07722897 -0.24520949 -0.09250262 -0.030644996 0.047026258 0.13086672 -0.1840731 0.17256886 -0.10171545 -0.091354914 0.17109334 0.064195074 0.06718686 0.129498 -0.09998441 -0.29057866 0.12692843 0.10792446 -0.20281042 0.1271661 0.058132153
24 0.18265402 -0.14817011 0.29564288 0.14422874 0.09327737 -0.4132604 -0.057354696 0.09243025 -0.18553522 -0.05732236 0.11340023 -0.16847074 0.25125197 -0.28310457 -0.027840836 0.113874376 -0.26368272 0.19895786 0.08843688 0.19195934 0.14960425 0.30268052 0.2292361 0.3501897 0.059185192 0.2831894 0.092051975 0.1814977 -0.062926814 0.24611786 0.099443845 0.03717387 -0.17467304 -0.08667761 -0.18469241 -0.101260416 0.16367699 -0.2332485 0.1551511 0.06501843 -0.051503785 0.038892064 -0.03264513 -0.19441175 0.04389657 -0.0073921015 0.006112402 -0.11538779 0.32529864 0.07148818 0.08277737 -0.025117917 -0.26281494 0.3456228 0.033512022 0.034851555 -0.013041789 -0.19177888 -0.13159095 0.061348926 0.11438584 -0.036483314 0.048506763 0.18821757
14 -0.08954319 -0.077420704 0.098035306 0.12209739 -0.05880821 -0.117102206 0.026014471 0.1325895 -0.07283232 -0.056281593 0.1976845 0.03553105 0.09487806 -0.11421977 -0.09896316 -0.050919555 0.005408081 0.00087546976 -0.12371938 -0.020908207 0.07767497 -0.00059462676 0.23875163 -0.05612614 0.0016955812 0.14309841 -0.008937465 0.01851279 0.008793634 -0.21528296 -0.14358102 -0.09343624 -0.2853047 -0.15687297 0.10099407 0.21478868 0.060396604 -0.017147923 0.3901513 -0.016614044 0.072411664 0.100983806 -0.0406226 -0.055140365 0.10015341 0.020681074 0.070303775 -0.11264314 -0.018649714 -0.03009756 0.14809187 0.03627104 0.09222432 0.14017037 0.2072675 -0.066101246 0.07809642 -0.0730192 0.06405382 -0.062215753 0.13361433 -0.16250862 0.057485364 0.10403564
7 -0.10728703 0.03299663 0.48070842 0.020222299 -0.060374714 -0.2931638 -0.18228689 -0.21156591 -0.05333532 -0.32318315 0.0894621 0.19248006 -0.020369759 0.0018059133 -0.009401007 -0.1473608 -0.2926929 -0.03515556 0.05212971 -0.07564317 0.16620214 -0.23022488 0.29891267 -0.080658615 0.09616371 0.101482034 -0.3839512 -0.098775916 -0.04718441 -0.11415475 -0.281194 0.13868228 -0.12561962 -0.0730984 0.6028098 -0.03023846 -0.02264253 0.37239608 0.24860683 0.09240439 0.30501002 0.18203436 -0.04851186 -0.188189 -0.067720614 -0.15001996 0.17951751 -0.13590756 -0.103844546 -0.0142442435 0.20580655 -0.047512468 0.14151923 -0.017305141 0.36439693 0.39628035 0.14108588 -0.11792035 -0.118766814 -0.030874144 -0.0063832696 -0.41839007 0.03966242 -0.08989297
6 0.07178716 -0.040234055 0.4759621 -0.058628455 0.07384648 -0.11894468 -0.2228613 -0.08227307 -0.017366098 -0.23818396 0.15052205 -0.02371682 -0.017802102 0.12943652 -0.124826096 -0.098603055 -0.2517749 -0.049491543 0.030447809 0.054089345 0.24468972 -0.23165877 0.31958234 -0.13714522 -0.03197232 0.10416035 -0.3421394 -0.2372731 -0.06540832 -0.10128282 -0.14842486 0.15476008 -0.25792736 -0.10071853 0.56407756 -0.05960215 -0.010408496 0.35320467 0.16045393 0.21532345 0.34282008 0.11263617 -0.041753016 -0.14908041 -0.05718502 -0.21415563 0.14740258 -0.22276841 -0.1277011 0.012882547 0.058581617 -0.122061856 0.13067691 0.010729434 0.34779367 0.37492415 0.19194852 -0.12153529 -0.06743011 -0.09038108 0.14836799 -0.4002759 0.10419794 -0.06989308
30 0.15387622 0.04137093 0.24313258 0.1106024 -0.119958036 -0.37395602 -0.09320189 0.049132966 -0.011813248 -0.19676556 -0.096243344 -0.10793852 0.17061688 -0.19968957 -0.03355593 -0.062211726 -0.18799414 0.20782617 -0.013970082 -0.04323342 -0.065514274 0.1616897 0.19562526 0.29137254 -0.043662418 0.37182167 0.06935266 0.13403593 0.009812128 -0.07675124 -0.10980209 -0.061291154 -0.2821863 -0.18377042 -0.3243905 0.049191695 0.24968094 -0.06441643 0.022789849 -0.0025477882 0.026796367 0.051941358 -0.21739411 -0.27716666 0.26097462 0.00055677287 -0.28401133 -0.1896951 0.3752061 -0.122054465 -0.018974945 0.1405722 -0.30737138 0.48700443 0.14820407 0.040494364 0.0016770602 -0.09508452 -0.2226181 0.21041097 -0.088665225 0.07884972 -0.0343977 0.21318883
8 -0.14765358 -0.07393853 0.09312418 0.12618981 -0.11719032 -0.12128157 0.040301543 0.12642343 0.02409731 0.01104143 0.18814437 0.09814432 -0.01971208 -0.06108499 -0.12747127 0.021456627 0.012988086 0.07794476 -0.082528025 0.104898654 0.17344461 0.04525005 0.18228981 -0.10883368 -0.01977096 0.15627714 -0.13117595 -0.0853621 0.040688667 -0.23377796 -0.14926746 -0.109900504 -0.20576747 -0.10526667 0.18298173 0.31652084 0.14236525 0.0888974 0.43585998 -0.077567875 0.04468282 0.14959969 0.073137976 -0.035434995 0.10513452 0.006844535 -0.0036713483 -0.10364857 -0.11401086 -0.09328212 0.20789483 0.02636196 0.23565346 0.121122554 0.21227805 -0.03609289 0.076115064 -0.014555146 0.00595354 -0.1788667 0.07535721 -0.23059195 0.014614216 0.050608937
28 0.13067597 0.06422827 0.18719767 0.12651671 0.05390513 -0.17587669 0.03336018 -0.055534065 -0.045994204 0.11675141 0.06353133 0.09808124 0.06762027 -0.21415688 -0.10072285 0.24467717 -0.2805236 0.19164652 -0.0050243456 0.1271008 0.12626323 0.20239216 0.31626186 0.07152652 0.034774367 0.4069027 0.10110822 0.1074173 -0.14098112 0.095676824 0.18800607 -0.078953035 -0.2615034 -0.0303501 -0.2738531 -0.017763209 0.09916084 -0.07599298 0.15440989 -0.029838022 -0.09772551 0.22732756 -0.14899413 -0.23100996 -0.018613562 -0.0052630045 -0.088046595 -0.10522578 0.012452217 -0.19561426 0.28414375 -0.072689936 -0.11535263 0.35210788 -0.05673987 -0.06930093 -0.009824273 -0.07969018 -0.28299615 0.04340816 0.04042867 -0.09665054 0.08367335 0.24469046
9 0.07125789 0.05026526 0.13323261 0.03430386 -0.037482638 -0.22143003 -0.030447379 0.15439712 0.01709665 0.061914917 0.00997087 0.03984212 0.015865332 -0.11616945 -0.15722135 0.08020398 -0.06623602 0.19259748 -0.0064262087 0.07384212 0.21211413 0.037737057 0.28789464 -0.04602962 0.014574837 0.15225771 -0.038244925 -0.0024155139 0.05854239 -0.07551535 -0.05971516 0.047383267 -0.2237845 -0.12794696 -0.03572829 0.14829868 0.109172 0.06656656 0.17022231 -0.017269148 -0.06612333 0.1912669 -0.15872999 -0.1692589 0.10794794 0.12422561 -0.16064557 -0.11657074 -0.054863557 0.05143644 0.0055390964 0.07655781 0.06655818 0.242449 0.13735136 0.058923285 -0.078065574 0.027709002 -0.11260164 -0.016100356 0.029893883 -0.019272303 0.11387865 0.17313331
11 -0.106817685 0.10850339 0.42563123 0.09634959 -0.16331491 -0.3047267 -0.089103915 -0.024089614 0.047185265 -0.27466086 0.22873046 0.1813476 0.00821754 -0.042014398 -0.10735704 -0.1257456 -0.1037814 0.010960442 0.07466452 -0.0005103419 0.26244935 -0.13121353 0.3028446 -0.17114528 0.1380609 -0.029706769 -0.36810124 -0.08452962 0.05055891 0.018180804 -0.26330298 0.26067892 -0.114812545 -0.15212028 0.49509922 -0.04285413 -0.1415161 0.3532193 0.32753646 0.050131496 0.20309824 0.20991306 -0.020996414 -0.21437387 -0.10114161 -0.23705928 -0.094409496 -0.010797674 -0.1822866 0.020042444 0.13944276 -0.11490432 0.23007658 -0.036772378 0.27627325 0.27971226 0.08452827 -0.10829816 -0.11263952 -0.11087953 -0.07389674 -0.24835534 0.023221795 -0.22731556
20 -0.05852167 0.058206066 0.17505643 0.043463327 -0.14251508 -0.1463666 -0.006131502 0.16825676 -0.06431539 0.12467954 0.17208374 0.010491586 0.16074471 -0.12031737 -0.13893737 -0.017250817 -0.022343578 0.0425118 -0.096029855 -0.08899703 0.0388572 0.06906811 0.20783599 0.05884802 -0.015308046 0.07001195 -0.11057199 -0.011523167 0.053322908 -0.053741783 -0.21637993 0.048433103 -0.34145474 -0.24257857 0.15687978 0.082908586 0.117912695 0.054589532 0.29993817 0.024989473 0.048726574 0.026777832 -0.07165752 -0.15792622 0.10829122 0.10724044 -0.055890106 -0.027733402 -0.016568685 0.13480338 0.117566645 0.092217945 0.0041924133 0.06584937 0.20046067 0.11516923 0.1533884 0.0031565602 0.031358432 0.06776496 0.054862898 -0.09896117 0.012924171 0.06772217
5 0.0986385 0.06476195 0.41704476 -0.034632552 -0.091034934 -0.095448636 -0.18247727 0.015236334 0.10186532 -0.20374347 0.26831946 -0.0022298878 0.16648433 0.06250823 -0.21334994 -0.093419336 -0.10680781 -0.03631069 0.0010201106 -0.00033354104 0.20248298 -0.22467478 0.30014065 -0.16513695 -0.05692435 -0.02670236 -0.25484398 -0.2770264 0.003801318 -0.0631562 -0.17941317 0.19642283 -0.3672383 -0.19463041 0.5092645 -0.023260169 -0.120299846 0.24535516 0.26443374 0.22374924 0.23133309 0.18839037 -0.06320122 -0.15080626 -0.010106055 -0.3004677 -0.0636192 -0.17052256 -0.1406139 0.034415763 0.06265804 -0.08636847 0.1580736 -0.08366549 0.2709752 0.3124585 0.2656905 0.031052344 -0.013948802 -0.111494824 0.09153212 -0.30232945 0.14985767 -0.13890198
26 0.089285105 0.16971855 0.08890231 0.0939456 0.091754146 -0.20034176 0.027798409 0.045291975 -0.14533073 0.2057006 0.13713594 0.030108225 0.05504755 -0.113007426 -0.06718967 0.32296154 -0.2796497 0.22681835 -0.022839263 0.1616032 0.03615856 0.17691702 0.342465 0.2677197 -0.027045785 0.4168115 0.10896826 0.12473566 -0.27078843 0.3045406 0.17140347 -0.036805764 -0.35573408 0.08134571 -0.32942557 -0.29826656 0.17790498 -0.16604571 0.16039625 -0.026971048 -0.14834718 0.23208924 0.002681758 -0.28663325 -0.18376459 -0.14563292 -0.06560033 0.022137228 0.11828192 -0.14574096 0.3005645 -0.3267429 -0.16921534 0.42706075 0.049316783 0.11426177 0.22338583 -0.22510599 -0.35079107 0.083508864 0.042432863 -0.17755449 -0.03098536 0.0024055652
29 0.015427348 0.0110736 0.1251865 0.119027145 -0.14921965 -0.16547067 -0.06499075 0.22663602 -0.0062658265 0.020767124 -0.022060452 0.02233253 0.160227 -0.008221805 -0.18270317 0.13498206 -0.03578312 0.12487833 -0.22294496 -0.067806244 0.034103237 -0.015791716 0.4691883 0.124757394 0.09745318 0.3376309 0.11725032 0.05291355 -0.27218333 -0.16783635 0.0004642189 -0.061784923 -0.23596244 0.019228902 -0.07197096 -0.08923436 0.048317716 -0.23797281 0.23688896 -0.10644662 -0.16341142 0.23143668 -0.060225595 0.06414557 -0.07275905 -0.061017152 0.1389179 0.07749043 -0.024856085 -0.030092686 0.059951216 -0.11203382 -0.094934426 0.32057863 0.041267384 0.121443585 0.107293285 -0.1067242 -0.12330426 -0.04044626 0.08828155 -0.0048288605 0.07681031 0.113848284
31 -0.014392668 -0.023081405 0.24743633 0.14448416 -0.18645976 -0.17174137 0.01770106 0.27257472 0.048416268 0.121669546 0.14247581 -0.17645787 0.04382645 -0.046069246 -0.19653277 -0.03982275 -0.055164974 0.16032475 -0.07808286 0.003263403 0.11857567 0.28440762 0.15633482 0.06046812 -0.08317665 0.19219808 -0.10437328 0.029292535 0.025674885 -0.093412146 -0.1621612 0.0049866685 -0.20367353 -0.20323713 0.026311759 0.16981639 0.27346745 0.0359665 0.13308436 -0.07479155 -0.061645623 0.020623632 -0.14003852 -0.046200983 0.152467 0.20576908 -0.13849683 -0.042851012 -0.02700849 0.18204324 -0.031334706 0.067395836 -0.04815572 0.2180952 0.15090135 0.0148878135 -0.039173644 -0.119037434 -0.14284477 0.09704575 0.08517343 0.08341036 -0.0022387812 0.15261081
25 0.05640261 -0.13313663 0.067468256 0.16183065 0.18179853 -0.2690366 -0.112811066 0.11157002 -0.17440763 0.07985481 0.0059476783 -0.083184786 0.25782594 -0.092052415 -0.20967151 0.28570145 -0.23678096 0.34125423 0.020129686 0.28162786 0.15145601 0.30354926 0.39088124 0.33751038 0.032204956 0.4513356 0.051398527 0.058386885 -0.32151714 0.23419487 0.20657977 -0.09241495 -0.2715937 0.017174946 -0.10274989 -0.18359031 0.05313605 -0.36116838 0.3586771 0.04600872 -0.18893228 0.06862065 0.07437447 -0.005500994 -0.09157066 -0.19669068 0.024397478 -0.02130481 0.14898284 -0.09673109 0.032066595 -0.22776955 -0.017243762 0.33863762 -0.1304661 0.121794865 0.12211872 -0.13614044 -0.19734392 -0.09513518 0.05306695 -0.16902779 -0.07772753 0.07104898
17 0.11074439 0.03174802 0.60997283 -0.015682543 -0.19985163 -0.25754035 -0.17646801 -0.017217489 0.16459481 -0.3107967 0.17832786 0.09083226 0.114071 0.05749674 -0.0072161756 0.0143865645 -0.27990553 -0.035343982 0.0995912 0.12546153 0.22402252 -0.24420755 0.2566645 -0.13474794 0.10131657 0.0860955 -0.3077434 -0.31331518 0.08986155 0.033701397 -0.1061149 0.27443323 -0.18577218 -0.1546776 0.54378575 -0.026166452 -0.03738546 0.48284036 0.14676023 0.04591942 0.3184588 0.2534136 0.12643154 -0.18446466 -0.032490652 -0.39076838 0.020630257 -0.19324222 -0.075355366 0.004576245 0.31146976 -0.119555384 0.05519984 0.040398993 0.2943691 0.42812288 0.22245213 -0.013287887 -0.107377365 -0.25188512 -0.037100095 -0.36219203 0.03303392 -0.24011049
19 0.14934157 0.040564906 0.1438385 0.063841134 -0.08052928 -0.3176654 -0.060064416 0.35711223 -0.008738186 0.12082836 -0.0057871933 -0.13852878 0.062894925 -0.094287366 -0.1400319 0.073916554 -0.020169541 0.20106682 -0.15648532 -0.01884385 0.22386274 0.11574337 0.33084673 0.10727711 0.051775634 0.16406655 0.041133802 0.13067248 0.004755015 -0.06275751 -0.1851894 0.043140627 -0.1410378 -0.12821765 -0.22575895 0.030294994 0.17065555 -0.09795666 0.0877271 -0.10706714 -0.19217072 0.1748484 -0.2152169 -0.18255983 0.041529536 0.22453384 -0.19670586 -0.007085951 0.09535003 0.13394845 -0.12599607 0.025711982 -0.10451273 0.3479612 0.19650187 0.06396164 -0.12106766 -0.1412809 -0.15199257 0.084089845 0.025919294 0.16613081 0.08380647 0.1716859
21 0.13881181 0.01490672 0.23108564 0.09378005 -0.08514407 -0.2979799 -0.037646625 0.3238072 0.015629634 0.058423694 0.04024593 -0.15010695 0.04286511 -0.06073241 -0.15556414 0.012063371 -0.054939557 0.18634987 -0.14259718 -0.021793874 0.2125125 0.13255283 0.31645602 0.062829725 0.028245488 0.178431 0.0063848253 0.14150156 -0.04220191 -0.05058107 -0.11693 0.07842168 -0.13324362 -0.091474295 -0.17840704 -0.007744959 0.17000154 -0.07113387 0.05322122 -0.063523225 -0.13742238 0.17173971 -0.2082486 -0.109155245 -0.005553583 0.15625212 -0.12903498 -0.0075393408 0.060784053 0.12783004 -0.1166559 -0.020350674 -0.12687299 0.32284948 0.1666356 0.076246746 -0.10590005 -0.1919201 -0.21636172 0.11318677 0.08865089 0.15760295 0.07679306 0.17746392
15 0.18737711 -0.016749384 0.217652 0.07100138 -0.030551279 -0.332261 -0.07495484 0.32444292 -0.011354981 0.01210754 0.01633568 -0.1622915 0.061062124 -0.029338276 -0.17944537 0.0062409732 -0.09662155 0.22568902 -0.12048077 -0.041680586 0.2417675 0.13815188 0.3246892 0.06316681 0.025683515 0.1902659 0.012710192 0.14475988 -0.048660792 -0.026173111 -0.1142803 0.051644813 -0.099415205 -0.12980877 -0.19233231 -0.020997211 0.1608785 -0.10363704 0.02971645 -0.039796323 -0.18528232 0.15095189 -0.28068513 -0.13760751 0.032455266 0.15426268 -0.17668179 -0.056565635 0.108625695 0.1631119 -0.18925071 0.02463701 -0.15586448 0.33873376 0.16817382 0.06972257 -0.11555315 -0.19779934 -0.20997472 0.14944747 0.062706426 0.13587719 0.04178214 0.14951418
13 -0.11777467 -0.10557935 -0.059678365 0.11302273 0.09971419 -0.09315732 0.04180321 0.25892776 -0.08969575 -0.06342629 0.16401652 -0.019021342 -0.0736474 -0.040098418 0.019495558 -0.009861159 0.10848645 -0.025990797 -0.17491531 0.15467235 0.15900147 -0.11793685 0.15625843 -0.20966987 -0.073432185 0.08304524 -0.13106808 -0.089651726 0.0651452 -0.18609327 -0.17982212 -0.046320196 -0.39419535 -0.18467295 0.12192984 0.30955383 0.12664123 0.24702641 0.4776302 -0.06350194 0.12298846 0.1245686 0.16236617 -0.10204936 0.10562493 -0.090095006 0.002126968 -0.13797382 0.014820299 -0.116674714 0.16642198 -0.07988956 0.3064884 0.19836242 0.3970915 -0.020489134 0.107493386 -0.02804974 0.009291445 -0.14017078 0.03598162 -0.29990783 -0.04537812 -0.06793605
27 0.22128421 -0.048380915 0.27509478 0.12139103 -0.042443167 -0.30994815 -0.031724546 0.15402119 -0.19770557 -0.15228069 0.07542941 -0.12521672 0.23905575 -0.27287468 0.11142322 0.05871134 -0.1652985 -0.046314135 -0.030388704 -0.049801715 -0.029767703 0.01579798 0.37138268 0.26247787 0.17099406 0.28690684 0.21851465 0.18917555 -0.014076004 -0.007886747 0.0040547554 0.04029948 -0.22969486 -0.23833074 -0.29045817 -0.08857944 0.13616504 -0.072426595 -0.0008093753 -0.03813096 0.020248426 0.052257244 -0.22363123 -0.38820353 0.15756705 0.10117066 0.13312976 -0.035498075 0.26994845 0.20553918 0.13319278 0.12695625 -0.47176042 0.5043586 0.17772494 0.009269652 0.007217664 -0.20404474 0.049276702 0.19526936 0.088077724 0.10164338 0.11273405 0.17516251
10 0.11977294 -0.101538 0.17646302 0.09147211 -0.13599968 -0.18015422 -0.07943661 0.12461547 0.05748771 -0.040159747 -0.0688306 0.07136887 0.1511347 -0.14176759 -0.11459245 0.11686829 -0.06313337 0.077524275 -0.17401111 -0.053525075 0.1537751 -0.04616037 0.37907538 -0.01987106 0.13389066 0.28235716 0.13290952 -0.0077464785 -0.04153807 -0.32876766 -0.04028633 -0.12265146 -0.14090602 -0.1021872 -0.06521227 0.22300273 0.06298296 -0.09826329 0.22042614 -0.11743842 -0.11101339 0.24679896 -0.16952802 -0.030373259 0.1577799 0.10310661 0.08214242 -0.106177844 -0.023875885 -0.069392934 0.1157325 0.15170804 -0.06107324 0.28357217 0.051160954 -0.049291253 -0.074364275 0.06776964 -0.015875282 -0.080976754 0.06295777 -0.0072005633 0.20488904 0.29153514
22 -0.16726796 0.09069095 0.21343778 0.070776545 -0.18557177 -0.066026896 0.050696604 0.037502434 -0.037135247 0.19435467 0.23950864 0.14395437 0.07681365 -0.04886829 -0.21559091 0.04583948 -0.08708057 0.05857847 -0.031917825 -0.06152746 0.08383016 0.16130729 0.15866208 -0.0646553 -0.056389865 0.09079012 -0.22751573 -0.07985505 0.024342693 -0.057215743 -0.19530313 -0.050480694 -0.32780853 -0.22165325 0.367733 0.14525956 0.1280024 0.1236697 0.40719303 0.018698 0.016515624 0.04182549 -0.0060012 -0.10470087 0.06990385 0.11356918 -0.043687526 -0.061077412 -0.22344574 0.086817905 0.2548958 0.076191895 0.13515662 -0.061947055 0.17539135 0.07486555 0.19912913 0.04160498 -0.016935945 -0.008308939 0.041782163 -0.3106488 -0.032377683 -0.015570877
18 -0.20751871 0.06959293 0.1871563 0.10330383 -0.15749468 -0.087503366 0.044866487 0.03953147 -0.06700009 0.103132024 0.28119335 0.12734345 0.09468213 -0.05450334 -0.2199464 -0.044496816 -0.07062416 0.04008372 -0.005876623 -0.043529153 0.09904209 0.16415484 0.19140324 -0.06228747 -0.012300036 0.060040344 -0.2702678 -0.0572452 0.065478 -0.065572724 -0.251619 -0.029679963 -0.26967716 -0.28740656 0.3851043 0.16218343 0.0441407 0.13667409 0.44014457 0.05154116 0.09834734 -0.042720508 -0.050788235 -0.15924928 0.06071342 0.09517406 -0.08309874 -0.0594859 -0.21360701 0.11412648 0.17536178 0.112462565 0.1877302 -0.07283898 0.18214789 0.054477833 0.1709338 -0.041799616 0.08018827 -0.032559976 0.0242372 -0.26016146 -0.08829427 -0.042783707
23 0.15878254 0.0062783384 0.16940993 0.14058657 -0.07668943 -0.30454344 -0.049202412 0.33095273 -0.029360795 0.031260356 0.0012761338 -0.18943946 0.075697556 -0.05216105 -0.12934245 0.019619158 -0.0815648 0.18035471 -0.1701458 0.0063087 0.23092914 0.2118216 0.33108434 0.091579065 0.043663714 0.21024571 0.010086283 0.16288464 -0.045426656 -0.07304485 -0.16612203 -0.011172793 -0.084028296 -0.17910239 -0.20866814 0.05318979 0.12436757 -0.10962198 0.0807077 -0.048450347 -0.19708106 0.09399259 -0.24079067 -0.13236752 -0.026472654 0.23128031 -0.1747131 -0.034571066 0.074419394 0.1409786 -0.15308125 0.07836599 -0.09358438 0.35256216 0.14236346 0.043223996 -0.15012218 -0.21927711 -0.16156659 0.10743948 0.032960124 0.18571767 0.019756012 0.19822328
16 0.17422317 0.034114826 0.16070317 0.12567703 -0.04369766 -0.30667847 -0.10492674 0.31239527 0.012754217 0.0039550727 -0.03179956 -0.20479695 0.04535541 -0.017139163 -0.15862425 -0.0010295135 -0.08639665 0.2268944 -0.1551702 -0.021305706 0.24239649 0.15547971 0.32934994 0.062221073 -0.0097362725 0.20922741 -0.026465306 0.13210323 -0.10268769 -0.055100128 -0.17206733 0.020957274 -0.109330915 -0.14204046 -0.18593039 0.008979522 0.11966519 -0.07791275 0.047725294 -0.053311173 -0.25648892 0.16610236 -0.29812428 -0.13498819 -0.00993501 0.17125143 -0.22776496 -0.0112654 0.063369796 0.13121936 -0.21631128 0.012711363 -0.069665976 0.35698336 0.15928417 0.08893687 -0.15807968 -0.18010427 -0.26595265 0.16930674 -0.010544837 0.18021515 0.043976 0.14403486
12 -0.03936938 0.08658136 0.06207581 0.02434138 0.04698039 -0.23258957 0.031233093 0.05109263 -0.19817951 -0.11138809 0.12772761 0.1661889 0.050141454 -0.14579292 -0.059945863 -0.01720149 0.059335496 0.011331497 0.010336512 0.08397581 0.14845759 -0.12801857 0.2715651 -0.1324685 0.026630774 -0.08050769 -0.23250875 -0.034512088 0.053458653 -0.00051560136 -0.11694846 0.16089374 -0.42108586 -0.25081 0.20782454 0.06939597 -0.006246973 0.21418183 0.43776584 0.22776774 0.12926872 0.10198853 0.034340903 -0.28911117 0.022255467 -0.077723406 -0.06562519 -0.088298716 -0.035775647 0.054555915 0.07919705 0.14911449 0.20821035 0.046970863 0.28211847 0.19916248 0.18263765 0.111864075 0.056654654 0.029167114 0.0067998003 -0.29038033 0.01378348 -0.009554965
